double T_MIN = 250;
double T_MAX = 1999;

double P_MIN = 5;
double P_MAX = 499;

double enlayers0weights[2][50] = {
    {9.7095096111297607e-01,  1.6720622777938843e+00,
        -6.8972796201705933e-01,  2.9848214983940125e-01,
         2.1246190071105957e+00, -3.3672651648521423e-01,
        -8.2278043031692505e-01,  3.6726310849189758e-01,
         4.3615421652793884e-01,  1.0418766736984253e+00,
         8.9897692203521729e-01,  4.6442168951034546e-01,
        -1.4565324783325195e+00,  3.5252955555915833e-01,
         8.0000913143157959e-01, -1.4310457706451416e+00,
         6.0025829076766968e-01,  3.4324774146080017e-01,
         3.4862998127937317e-01, -1.4499273300170898e+00,
         4.3922644853591919e-01,  3.3114135265350342e-01,
         3.8790634274482727e-01, -5.1621079444885254e-01,
        -8.8808405399322510e-01,  2.6918002963066101e-01,
         2.1852126717567444e-01,  4.9526995420455933e-01,
         9.1483926773071289e-01, -8.2394492626190186e-01,
         4.4216388463973999e-01,  1.1740294694900513e+00,
         1.3746597766876221e+00, -3.6556455492973328e-01,
         8.8404172658920288e-01, -5.9465909004211426e-01,
         3.0086815357208252e-01, -1.0434908866882324e+00,
         7.2619986534118652e-01, -2.4692287445068359e+00,
         8.0421787500381470e-01, -4.2879715561866760e-01,
         8.7324976921081543e-01, -2.8993734717369080e-01,
         5.7638508081436157e-01, -1.3071371316909790e+00,
        -1.0249700546264648e+00, -1.1512367725372314e+00,
        -1.2222436666488647e+00, -3.5645744204521179e-01 },
    {-3.7314903736114502e-01,  9.1708536148071289e+00,
         6.9856479763984680e-02,  8.2866638898849487e-02,
         1.5199012756347656e+01, -5.7550504803657532e-02,
        -2.8307456970214844e+00,  5.9811372309923172e-02,
         4.8092972487211227e-02, -3.9142253398895264e+00,
        -4.2727322578430176e+00,  4.0087964385747910e-02,
         2.2354290008544922e+01,  8.2503646612167358e-02,
        -1.4798313379287720e-01, -5.7451395988464355e+00,
         2.2916032001376152e-02,  8.3738580346107483e-02,
         7.0102773606777191e-02, -2.5503039360046387e+00,
        -2.4647932052612305e+00,  6.7403107881546021e-02,
         4.3153040111064911e-02, -2.8115211054682732e-02,
         6.6467437744140625e+00,  9.3327268958091736e-02,
         1.2385966628789902e-01, -3.4557660110294819e-03,
        -7.0055012702941895e+00,  3.8528337478637695e+00,
         3.0030494555830956e-02, -5.6207376718521118e-01,
         5.1636590957641602e+00, -3.9864189922809601e-02,
         3.5319766998291016e+00,  1.6502998769283295e-03,
         1.0263830423355103e-01,  9.0239953994750977e+00,
        -2.9896779060363770e+00, -1.9030084609985352e+01,
         2.9237918853759766e+00, -1.8387908115983009e-02,
         3.3974370956420898e+00, -8.2789547741413116e-02,
         1.2468426488339901e-02,  1.7438796758651733e+00,
        -4.4902467727661133e+00,  1.3721853256225586e+01,
         1.1621583938598633e+01, -6.9442160427570343e-02 } };

double enlayers0bias[1][50] = { 
        -0.45583322644233703613,  0.12476086616516113281,
        -0.23756675422191619873,  1.10412633419036865234,
         0.49291768670082092285, -1.13258635997772216797,
        -1.15310716629028320312,  0.75866520404815673828,
         0.44312319159507751465, -0.45851644873619079590,
        -0.61183345317840576172,  0.39597401022911071777,
         1.97273850440979003906,  0.65266621112823486328,
        -0.53593230247497558594,  0.08894436061382293701,
         1.03463256359100341797,  0.66691994667053222656,
         0.81949180364608764648,  0.41844636201858520508,
         0.19167479872703552246,  1.12334847450256347656,
         0.95032387971878051758, -0.21746501326560974121,
         0.53808820247650146484,  1.30103969573974609375,
         1.35725605487823486328,  0.69470465183258056641,
        -0.74671953916549682617,  0.53752815723419189453,
         0.92633962631225585938, -0.84959924221038818359,
        -0.08246970921754837036, -1.16538882255554199219,
         1.10661745071411132812, -0.00449737021699547768,
         0.77182358503341674805,  1.07115805149078369141,
        -0.25089383125305175781, -0.44669628143310546875,
         1.49848914146423339844, -0.89548516273498535156,
         1.07344985008239746094, -1.22289693355560302734,
         1.12342965602874755859,  0.64610612392425537109,
        -0.82020413875579833984,  1.51448237895965576172,
         1.46232032775878906250, -0.71622782945632934570
};

double enlayers1weights[50][1] = {
1.08522474765777587891,  1.53735280036926269531,
         -1.04821848869323730469,  0.80898332595825195312,
          0.93198990821838378906, -0.95304083824157714844,
         -1.02355802059173583984,  0.52799016237258911133,
          0.73226249217987060547,  1.02936494350433349609,
          0.98963052034378051758,  0.86609619855880737305,
         -3.26262354850769042969,  1.20017242431640625000,
          1.45039856433868408203, -1.17457783222198486328,
          0.82496637105941772461,  1.16071116924285888672,
          0.90450662374496459961, -1.30912804603576660156,
          1.01487112045288085938,  0.59253454208374023438,
          0.74286371469497680664, -1.32134878635406494141,
         -2.05862569808959960938,  0.84414905309677124023,
          1.15009021759033203125,  0.65777164697647094727,
          2.20019364356994628906, -1.66092157363891601562,
          1.22171044349670410156,  0.98953890800476074219,
          0.83221799135208129883, -0.97536331415176391602,
          0.73297524452209472656, -1.07044494152069091797,
          0.99677985906600952148, -2.74497032165527343750,
          0.99707865715026855469, -0.96116721630096435547,
          0.79099279642105102539, -1.06953179836273193359,
          0.82346808910369873047, -0.76188915967941284180,
          0.77346211671829223633, -0.83839589357376098633,
         -0.69429451227188110352, -3.13439917564392089844,
         -2.63587832450866699219, -0.53120851516723632812
};

double enlayers1bias = 0.45196458697319030762;